<BinaryTree boostWeight="1.0e+00" itree="157" type="DecisionTree">
  <Variables NVar="20" />
  <Node Cut="50.5" IVar="14" NCoef="0" cType="1" depth="0" nType="0" pos="s" purity="0.0e+00" res="0.0e+00" rms="0.0e+00">
    <Node Cut="9" IVar="8" NCoef="0" cType="1" depth="1" nType="0" pos="l" purity="0.0e+00" res="0.0e+00" rms="0.0e+00">
      <Node Cut="1.5" IVar="17" NCoef="0" cType="1" depth="2" nType="0" pos="l" purity="0.0e+00" res="0.0e+00" rms="0.0e+00">
        <Node Cut="0.0e+00" IVar="-1" NCoef="0" cType="1" depth="3" nType="-99" pos="l" purity="0.0e+00" res="0.00975316" rms="0.0e+00" />
        <Node Cut="3.5" IVar="19" NCoef="0" cType="1" depth="3" nType="0" pos="r" purity="0.0e+00" res="0.0e+00" rms="0.0e+00">
          <Node Cut="5.5" IVar="11" NCoef="0" cType="1" depth="4" nType="0" pos="l" purity="0.0e+00" res="0.0e+00" rms="0.0e+00">
            <Node Cut="0.0e+00" IVar="-1" NCoef="0" cType="1" depth="5" nType="-99" pos="l" purity="0.0e+00" res="-0.00204626" rms="0.0e+00" />
            <Node Cut="0.0e+00" IVar="-1" NCoef="0" cType="1" depth="5" nType="-99" pos="r" purity="0.0e+00" res="0.00835429" rms="0.0e+00" />
          </Node>
          <Node Cut="68" IVar="10" NCoef="0" cType="1" depth="4" nType="0" pos="r" purity="0.0e+00" res="0.0e+00" rms="0.0e+00">
            <Node Cut="0.0e+00" IVar="-1" NCoef="0" cType="1" depth="5" nType="-99" pos="l" purity="0.0e+00" res="0.00024633" rms="0.0e+00" />
            <Node Cut="0.0e+00" IVar="-1" NCoef="0" cType="1" depth="5" nType="-99" pos="r" purity="0.0e+00" res="-0.0140392" rms="0.0e+00" />
          </Node>
        </Node>
      </Node>
      <Node Cut="113.5" IVar="9" NCoef="0" cType="1" depth="2" nType="0" pos="r" purity="0.0e+00" res="0.0e+00" rms="0.0e+00">
        <Node Cut="24.5" IVar="13" NCoef="0" cType="1" depth="3" nType="0" pos="l" purity="0.0e+00" res="0.0e+00" rms="0.0e+00">
          <Node Cut="-3.5" IVar="16" NCoef="0" cType="1" depth="4" nType="0" pos="l" purity="0.0e+00" res="0.0e+00" rms="0.0e+00">
            <Node Cut="0.0e+00" IVar="-1" NCoef="0" cType="1" depth="5" nType="-99" pos="l" purity="0.0e+00" res="-0.00189446" rms="0.0e+00" />
            <Node Cut="0.0e+00" IVar="-1" NCoef="0" cType="1" depth="5" nType="-99" pos="r" purity="0.0e+00" res="0.00224029" rms="0.0e+00" />
          </Node>
          <Node Cut="5" IVar="7" NCoef="0" cType="1" depth="4" nType="0" pos="r" purity="0.0e+00" res="0.0e+00" rms="0.0e+00">
            <Node Cut="0.0e+00" IVar="-1" NCoef="0" cType="1" depth="5" nType="-99" pos="l" purity="0.0e+00" res="-0.00101697" rms="0.0e+00" />
            <Node Cut="0.0e+00" IVar="-1" NCoef="0" cType="1" depth="5" nType="-99" pos="r" purity="0.0e+00" res="-0.00631682" rms="0.0e+00" />
          </Node>
        </Node>
        <Node Cut="130" IVar="9" NCoef="0" cType="1" depth="3" nType="0" pos="r" purity="0.0e+00" res="0.0e+00" rms="0.0e+00">
          <Node Cut="0.0e+00" IVar="-1" NCoef="0" cType="1" depth="4" nType="-99" pos="l" purity="0.0e+00" res="0.0040777" rms="0.0e+00" />
          <Node Cut="148" IVar="10" NCoef="0" cType="1" depth="4" nType="0" pos="r" purity="0.0e+00" res="0.0e+00" rms="0.0e+00">
            <Node Cut="0.0e+00" IVar="-1" NCoef="0" cType="1" depth="5" nType="-99" pos="l" purity="0.0e+00" res="-0.00395085" rms="0.0e+00" />
            <Node Cut="0.0e+00" IVar="-1" NCoef="0" cType="1" depth="5" nType="-99" pos="r" purity="0.0e+00" res="0.000303913" rms="0.0e+00" />
          </Node>
        </Node>
      </Node>
    </Node>
    <Node Cut="0.0e+00" IVar="-1" NCoef="0" cType="1" depth="1" nType="-99" pos="r" purity="0.0e+00" res="0.00355034" rms="0.0e+00" />
  </Node>
</BinaryTree>
